digraph Tree {
node [shape=box, style="filled", color="black", fontname="helvetica"] ;
edge [fontname="helvetica"] ;
0 [label="avg_glucose_level <= 182.945\ngini = 0.076\nsamples = 3694\nvalue = [3548, 146]\nclass = 0", fillcolor="#e68641"] ;
1 [label="bmi <= 23.75\ngini = 0.072\nsamples = 3630\nvalue = [3495, 135]\nclass = 0", fillcolor="#e68641"] ;
0 -> 1 [labeldistance=2.5, labelangle=45, headlabel="True"] ;
2 [label="bmi <= 19.35\ngini = 0.03\nsamples = 996\nvalue = [981, 15]\nclass = 0", fillcolor="#e5833c"] ;
1 -> 2 ;
3 [label="bmi <= 16.95\ngini = 0.006\nsamples = 359\nvalue = [358, 1]\nclass = 0", fillcolor="#e5813a"] ;
2 -> 3 ;
4 [label="bmi <= 16.85\ngini = 0.016\nsamples = 128\nvalue = [127, 1]\nclass = 0", fillcolor="#e5823b"] ;
3 -> 4 ;
5 [label="gini = 0.0\nsamples = 123\nvalue = [123, 0]\nclass = 0", fillcolor="#e58139"] ;
4 -> 5 ;
6 [label="avg_glucose_level <= 79.515\ngini = 0.32\nsamples = 5\nvalue = [4, 1]\nclass = 0", fillcolor="#eca06a"] ;
4 -> 6 ;
7 [label="gini = 0.0\nsamples = 3\nvalue = [3, 0]\nclass = 0", fillcolor="#e58139"] ;
6 -> 7 ;
8 [label="gini = 0.5\nsamples = 2\nvalue = [1, 1]\nclass = 0", fillcolor="#ffffff"] ;
6 -> 8 ;
9 [label="gini = 0.0\nsamples = 231\nvalue = [231, 0]\nclass = 0", fillcolor="#e58139"] ;
3 -> 9 ;
10 [label="avg_glucose_level <= 80.155\ngini = 0.043\nsamples = 637\nvalue = [623, 14]\nclass = 0", fillcolor="#e6843d"] ;
2 -> 10 ;
11 [label="avg_glucose_level <= 80.11\ngini = 0.071\nsamples = 216\nvalue = [208, 8]\nclass = 0", fillcolor="#e68641"] ;
10 -> 11 ;
12 [label="avg_glucose_level <= 74.065\ngini = 0.063\nsamples = 215\nvalue = [208, 7]\nclass = 0", fillcolor="#e68540"] ;
11 -> 12 ;
13 [label="gini = 0.014\nsamples = 142\nvalue = [141, 1]\nclass = 0", fillcolor="#e5823a"] ;
12 -> 13 ;
14 [label="gini = 0.151\nsamples = 73\nvalue = [67, 6]\nclass = 0", fillcolor="#e78c4b"] ;
12 -> 14 ;
15 [label="gini = 0.0\nsamples = 1\nvalue = [0, 1]\nclass = 1", fillcolor="#399de5"] ;
11 -> 15 ;
16 [label="avg_glucose_level <= 88.855\ngini = 0.028\nsamples = 421\nvalue = [415, 6]\nclass = 0", fillcolor="#e5833c"] ;
10 -> 16 ;
17 [label="gini = 0.0\nsamples = 109\nvalue = [109, 0]\nclass = 0", fillcolor="#e58139"] ;
16 -> 17 ;
18 [label="avg_glucose_level <= 88.95\ngini = 0.038\nsamples = 312\nvalue = [306, 6]\nclass = 0", fillcolor="#e6833d"] ;
16 -> 18 ;
19 [label="gini = 0.0\nsamples = 1\nvalue = [0, 1]\nclass = 1", fillcolor="#399de5"] ;
18 -> 19 ;
20 [label="gini = 0.032\nsamples = 311\nvalue = [306, 5]\nclass = 0", fillcolor="#e5833c"] ;
18 -> 20 ;
21 [label="bmi <= 29.75\ngini = 0.087\nsamples = 2634\nvalue = [2514, 120]\nclass = 0", fillcolor="#e68742"] ;
1 -> 21 ;
22 [label="bmi <= 28.847\ngini = 0.115\nsamples = 1309\nvalue = [1229, 80]\nclass = 0", fillcolor="#e78946"] ;
21 -> 22 ;
23 [label="bmi <= 24.05\ngini = 0.088\nsamples = 1038\nvalue = [990, 48]\nclass = 0", fillcolor="#e68743"] ;
22 -> 23 ;
24 [label="avg_glucose_level <= 105.62\ngini = 0.226\nsamples = 54\nvalue = [47, 7]\nclass = 0", fillcolor="#e99456"] ;
23 -> 24 ;
25 [label="gini = 0.145\nsamples = 38\nvalue = [35, 3]\nclass = 0", fillcolor="#e78c4a"] ;
24 -> 25 ;
26 [label="gini = 0.375\nsamples = 16\nvalue = [12, 4]\nclass = 0", fillcolor="#eeab7b"] ;
24 -> 26 ;
27 [label="bmi <= 27.05\ngini = 0.08\nsamples = 984\nvalue = [943, 41]\nclass = 0", fillcolor="#e68642"] ;
23 -> 27 ;
28 [label="gini = 0.061\nsamples = 606\nvalue = [587, 19]\nclass = 0", fillcolor="#e6853f"] ;
27 -> 28 ;
29 [label="gini = 0.11\nsamples = 378\nvalue = [356, 22]\nclass = 0", fillcolor="#e78945"] ;
27 -> 29 ;
30 [label="bmi <= 28.897\ngini = 0.208\nsamples = 271\nvalue = [239, 32]\nclass = 0", fillcolor="#e89254"] ;
22 -> 30 ;
31 [label="avg_glucose_level <= 64.345\ngini = 0.324\nsamples = 113\nvalue = [90, 23]\nclass = 0", fillcolor="#eca16c"] ;
30 -> 31 ;
32 [label="gini = 0.278\nsamples = 6\nvalue = [1, 5]\nclass = 1", fillcolor="#61b1ea"] ;
31 -> 32 ;
33 [label="gini = 0.28\nsamples = 107\nvalue = [89, 18]\nclass = 0", fillcolor="#ea9a61"] ;
31 -> 33 ;
34 [label="avg_glucose_level <= 98.105\ngini = 0.107\nsamples = 158\nvalue = [149, 9]\nclass = 0", fillcolor="#e78945"] ;
30 -> 34 ;
35 [label="gini = 0.161\nsamples = 102\nvalue = [93, 9]\nclass = 0", fillcolor="#e88d4c"] ;
34 -> 35 ;
36 [label="gini = 0.0\nsamples = 56\nvalue = [56, 0]\nclass = 0", fillcolor="#e58139"] ;
34 -> 36 ;
37 [label="avg_glucose_level <= 104.74\ngini = 0.059\nsamples = 1325\nvalue = [1285, 40]\nclass = 0", fillcolor="#e6853f"] ;
21 -> 37 ;
38 [label="avg_glucose_level <= 73.185\ngini = 0.043\nsamples = 994\nvalue = [972, 22]\nclass = 0", fillcolor="#e6843d"] ;
37 -> 38 ;
39 [label="avg_glucose_level <= 73.1\ngini = 0.079\nsamples = 267\nvalue = [256, 11]\nclass = 0", fillcolor="#e68642"] ;
38 -> 39 ;
40 [label="gini = 0.072\nsamples = 266\nvalue = [256, 10]\nclass = 0", fillcolor="#e68641"] ;
39 -> 40 ;
41 [label="gini = 0.0\nsamples = 1\nvalue = [0, 1]\nclass = 1", fillcolor="#399de5"] ;
39 -> 41 ;
42 [label="avg_glucose_level <= 84.945\ngini = 0.03\nsamples = 727\nvalue = [716, 11]\nclass = 0", fillcolor="#e5833c"] ;
38 -> 42 ;
43 [label="gini = 0.007\nsamples = 289\nvalue = [288, 1]\nclass = 0", fillcolor="#e5813a"] ;
42 -> 43 ;
44 [label="gini = 0.045\nsamples = 438\nvalue = [428, 10]\nclass = 0", fillcolor="#e6843e"] ;
42 -> 44 ;
45 [label="avg_glucose_level <= 105.29\ngini = 0.103\nsamples = 331\nvalue = [313, 18]\nclass = 0", fillcolor="#e68844"] ;
37 -> 45 ;
46 [label="bmi <= 41.0\ngini = 0.444\nsamples = 3\nvalue = [1, 2]\nclass = 1", fillcolor="#9ccef2"] ;
45 -> 46 ;
47 [label="gini = 0.0\nsamples = 2\nvalue = [0, 2]\nclass = 1", fillcolor="#399de5"] ;
46 -> 47 ;
48 [label="gini = 0.0\nsamples = 1\nvalue = [1, 0]\nclass = 0", fillcolor="#e58139"] ;
46 -> 48 ;
49 [label="avg_glucose_level <= 143.785\ngini = 0.093\nsamples = 328\nvalue = [312, 16]\nclass = 0", fillcolor="#e68743"] ;
45 -> 49 ;
50 [label="gini = 0.109\nsamples = 259\nvalue = [244, 15]\nclass = 0", fillcolor="#e78945"] ;
49 -> 50 ;
51 [label="gini = 0.029\nsamples = 69\nvalue = [68, 1]\nclass = 0", fillcolor="#e5833c"] ;
49 -> 51 ;
52 [label="avg_glucose_level <= 182.995\ngini = 0.285\nsamples = 64\nvalue = [53, 11]\nclass = 0", fillcolor="#ea9b62"] ;
0 -> 52 [labeldistance=2.5, labelangle=-45, headlabel="False"] ;
53 [label="gini = 0.0\nsamples = 1\nvalue = [0, 1]\nclass = 1", fillcolor="#399de5"] ;
52 -> 53 ;
54 [label="avg_glucose_level <= 189.83\ngini = 0.267\nsamples = 63\nvalue = [53, 10]\nclass = 0", fillcolor="#ea995e"] ;
52 -> 54 ;
55 [label="avg_glucose_level <= 186.265\ngini = 0.17\nsamples = 32\nvalue = [29, 3]\nclass = 0", fillcolor="#e88e4d"] ;
54 -> 55 ;
56 [label="avg_glucose_level <= 186.19\ngini = 0.337\nsamples = 14\nvalue = [11, 3]\nclass = 0", fillcolor="#eca36f"] ;
55 -> 56 ;
57 [label="avg_glucose_level <= 184.275\ngini = 0.26\nsamples = 13\nvalue = [11, 2]\nclass = 0", fillcolor="#ea985d"] ;
56 -> 57 ;
58 [label="gini = 0.0\nsamples = 7\nvalue = [7, 0]\nclass = 0", fillcolor="#e58139"] ;
57 -> 58 ;
59 [label="gini = 0.444\nsamples = 6\nvalue = [4, 2]\nclass = 0", fillcolor="#f2c09c"] ;
57 -> 59 ;
60 [label="gini = 0.0\nsamples = 1\nvalue = [0, 1]\nclass = 1", fillcolor="#399de5"] ;
56 -> 60 ;
61 [label="gini = 0.0\nsamples = 18\nvalue = [18, 0]\nclass = 0", fillcolor="#e58139"] ;
55 -> 61 ;
62 [label="avg_glucose_level <= 190.36\ngini = 0.35\nsamples = 31\nvalue = [24, 7]\nclass = 0", fillcolor="#eda673"] ;
54 -> 62 ;
63 [label="avg_glucose_level <= 190.135\ngini = 0.48\nsamples = 5\nvalue = [2, 3]\nclass = 1", fillcolor="#bddef6"] ;
62 -> 63 ;
64 [label="avg_glucose_level <= 189.86\ngini = 0.444\nsamples = 3\nvalue = [2, 1]\nclass = 0", fillcolor="#f2c09c"] ;
63 -> 64 ;
65 [label="gini = 0.0\nsamples = 1\nvalue = [0, 1]\nclass = 1", fillcolor="#399de5"] ;
64 -> 65 ;
66 [label="gini = 0.0\nsamples = 2\nvalue = [2, 0]\nclass = 0", fillcolor="#e58139"] ;
64 -> 66 ;
67 [label="gini = 0.0\nsamples = 2\nvalue = [0, 2]\nclass = 1", fillcolor="#399de5"] ;
63 -> 67 ;
68 [label="bmi <= 23.35\ngini = 0.26\nsamples = 26\nvalue = [22, 4]\nclass = 0", fillcolor="#ea985d"] ;
62 -> 68 ;
69 [label="bmi <= 22.2\ngini = 0.5\nsamples = 2\nvalue = [1, 1]\nclass = 0", fillcolor="#ffffff"] ;
68 -> 69 ;
70 [label="gini = 0.0\nsamples = 1\nvalue = [1, 0]\nclass = 0", fillcolor="#e58139"] ;
69 -> 70 ;
71 [label="gini = 0.0\nsamples = 1\nvalue = [0, 1]\nclass = 1", fillcolor="#399de5"] ;
69 -> 71 ;
72 [label="bmi <= 36.75\ngini = 0.219\nsamples = 24\nvalue = [21, 3]\nclass = 0", fillcolor="#e99355"] ;
68 -> 72 ;
73 [label="gini = 0.117\nsamples = 16\nvalue = [15, 1]\nclass = 0", fillcolor="#e78946"] ;
72 -> 73 ;
74 [label="gini = 0.375\nsamples = 8\nvalue = [6, 2]\nclass = 0", fillcolor="#eeab7b"] ;
72 -> 74 ;
}