digraph Tree {
node [shape=box, style="filled", color="black", fontname="helvetica"] ;
edge [fontname="helvetica"] ;
0 [label="Which <= 44.5\ngini = 0.506\nsamples = 156\nvalue = [1, 76, 79]\nclass = Yes", fillcolor="#faf8fe"] ;
1 [label="Name <= 170.5\ngini = 0.464\nsamples = 44\nvalue = [1, 29, 14]\nclass = No", fillcolor="#9cf2c0"] ;
0 -> 1 [labeldistance=2.5, labelangle=45, headlabel="True"] ;
2 [label="Which <= 22.5\ngini = 0.382\nsamples = 35\nvalue = [0, 26, 9]\nclass = No", fillcolor="#7eeead"] ;
1 -> 2 ;
3 [label="Which <= 4.5\ngini = 0.465\nsamples = 19\nvalue = [0, 12, 7]\nclass = No", fillcolor="#acf4ca"] ;
2 -> 3 ;
4 [label="gini = 0.0\nsamples = 4\nvalue = [0, 4, 0]\nclass = No", fillcolor="#39e581"] ;
3 -> 4 ;
5 [label="Which <= 8.5\ngini = 0.498\nsamples = 15\nvalue = [0, 8, 7]\nclass = No", fillcolor="#e6fcef"] ;
3 -> 5 ;
6 [label="gini = 0.0\nsamples = 3\nvalue = [0, 0, 3]\nclass = Yes", fillcolor="#8139e5"] ;
5 -> 6 ;
7 [label="Name <= 68.0\ngini = 0.444\nsamples = 12\nvalue = [0, 8, 4]\nclass = No", fillcolor="#9cf2c0"] ;
5 -> 7 ;
8 [label="Name <= 57.0\ngini = 0.5\nsamples = 8\nvalue = [0, 4, 4]\nclass = No", fillcolor="#ffffff"] ;
7 -> 8 ;
9 [label="Name <= 28.5\ngini = 0.444\nsamples = 6\nvalue = [0, 4, 2]\nclass = No", fillcolor="#9cf2c0"] ;
8 -> 9 ;
10 [label="Family <= 46.5\ngini = 0.444\nsamples = 3\nvalue = [0, 1, 2]\nclass = Yes", fillcolor="#c09cf2"] ;
9 -> 10 ;
11 [label="gini = 0.0\nsamples = 2\nvalue = [0, 0, 2]\nclass = Yes", fillcolor="#8139e5"] ;
10 -> 11 ;
12 [label="gini = 0.0\nsamples = 1\nvalue = [0, 1, 0]\nclass = No", fillcolor="#39e581"] ;
10 -> 12 ;
13 [label="gini = 0.0\nsamples = 3\nvalue = [0, 3, 0]\nclass = No", fillcolor="#39e581"] ;
9 -> 13 ;
14 [label="gini = 0.0\nsamples = 2\nvalue = [0, 0, 2]\nclass = Yes", fillcolor="#8139e5"] ;
8 -> 14 ;
15 [label="gini = 0.0\nsamples = 4\nvalue = [0, 4, 0]\nclass = No", fillcolor="#39e581"] ;
7 -> 15 ;
16 [label="Which <= 36.5\ngini = 0.219\nsamples = 16\nvalue = [0, 14, 2]\nclass = No", fillcolor="#55e993"] ;
2 -> 16 ;
17 [label="gini = 0.0\nsamples = 10\nvalue = [0, 10, 0]\nclass = No", fillcolor="#39e581"] ;
16 -> 17 ;
18 [label="Which <= 40.5\ngini = 0.444\nsamples = 6\nvalue = [0, 4, 2]\nclass = No", fillcolor="#9cf2c0"] ;
16 -> 18 ;
19 [label="Which <= 37.5\ngini = 0.444\nsamples = 3\nvalue = [0, 1, 2]\nclass = Yes", fillcolor="#c09cf2"] ;
18 -> 19 ;
20 [label="gini = 0.0\nsamples = 1\nvalue = [0, 0, 1]\nclass = Yes", fillcolor="#8139e5"] ;
19 -> 20 ;
21 [label="Family <= 57.5\ngini = 0.5\nsamples = 2\nvalue = [0, 1, 1]\nclass = No", fillcolor="#ffffff"] ;
19 -> 21 ;
22 [label="gini = 0.0\nsamples = 1\nvalue = [0, 1, 0]\nclass = No", fillcolor="#39e581"] ;
21 -> 22 ;
23 [label="gini = 0.0\nsamples = 1\nvalue = [0, 0, 1]\nclass = Yes", fillcolor="#8139e5"] ;
21 -> 23 ;
24 [label="gini = 0.0\nsamples = 3\nvalue = [0, 3, 0]\nclass = No", fillcolor="#39e581"] ;
18 -> 24 ;
25 [label="Which <= 3.5\ngini = 0.568\nsamples = 9\nvalue = [1, 3, 5]\nclass = Yes", fillcolor="#d5bdf6"] ;
1 -> 25 ;
26 [label="gini = 0.0\nsamples = 1\nvalue = [1, 0, 0]\nclass =  Yes", fillcolor="#e58139"] ;
25 -> 26 ;
27 [label="Family <= 18.5\ngini = 0.469\nsamples = 8\nvalue = [0, 3, 5]\nclass = Yes", fillcolor="#cdb0f5"] ;
25 -> 27 ;
28 [label="gini = 0.0\nsamples = 1\nvalue = [0, 1, 0]\nclass = No", fillcolor="#39e581"] ;
27 -> 28 ;
29 [label="Which <= 11.0\ngini = 0.408\nsamples = 7\nvalue = [0, 2, 5]\nclass = Yes", fillcolor="#b388ef"] ;
27 -> 29 ;
30 [label="gini = 0.0\nsamples = 1\nvalue = [0, 1, 0]\nclass = No", fillcolor="#39e581"] ;
29 -> 30 ;
31 [label="Family <= 88.0\ngini = 0.278\nsamples = 6\nvalue = [0, 1, 5]\nclass = Yes", fillcolor="#9a61ea"] ;
29 -> 31 ;
32 [label="gini = 0.0\nsamples = 5\nvalue = [0, 0, 5]\nclass = Yes", fillcolor="#8139e5"] ;
31 -> 32 ;
33 [label="gini = 0.0\nsamples = 1\nvalue = [0, 1, 0]\nclass = No", fillcolor="#39e581"] ;
31 -> 33 ;
34 [label="Which <= 62.5\ngini = 0.487\nsamples = 112\nvalue = [0, 47, 65]\nclass = Yes", fillcolor="#dcc8f8"] ;
0 -> 34 [labeldistance=2.5, labelangle=-45, headlabel="False"] ;
35 [label="Name <= 142.5\ngini = 0.264\nsamples = 32\nvalue = [0, 5, 27]\nclass = Yes", fillcolor="#985eea"] ;
34 -> 35 ;
36 [label="Name <= 132.0\ngini = 0.33\nsamples = 24\nvalue = [0, 5, 19]\nclass = Yes", fillcolor="#a26dec"] ;
35 -> 36 ;
37 [label="Name <= 20.0\ngini = 0.245\nsamples = 21\nvalue = [0, 3, 18]\nclass = Yes", fillcolor="#965ae9"] ;
36 -> 37 ;
38 [label="Which <= 57.0\ngini = 0.5\nsamples = 2\nvalue = [0, 1, 1]\nclass = No", fillcolor="#ffffff"] ;
37 -> 38 ;
39 [label="gini = 0.0\nsamples = 1\nvalue = [0, 0, 1]\nclass = Yes", fillcolor="#8139e5"] ;
38 -> 39 ;
40 [label="gini = 0.0\nsamples = 1\nvalue = [0, 1, 0]\nclass = No", fillcolor="#39e581"] ;
38 -> 40 ;
41 [label="Name <= 88.5\ngini = 0.188\nsamples = 19\nvalue = [0, 2, 17]\nclass = Yes", fillcolor="#9050e8"] ;
37 -> 41 ;
42 [label="Family <= 18.0\ngini = 0.124\nsamples = 15\nvalue = [0, 1, 14]\nclass = Yes", fillcolor="#8a47e7"] ;
41 -> 42 ;
43 [label="Family <= 15.5\ngini = 0.32\nsamples = 5\nvalue = [0, 1, 4]\nclass = Yes", fillcolor="#a06aec"] ;
42 -> 43 ;
44 [label="gini = 0.0\nsamples = 4\nvalue = [0, 0, 4]\nclass = Yes", fillcolor="#8139e5"] ;
43 -> 44 ;
45 [label="gini = 0.0\nsamples = 1\nvalue = [0, 1, 0]\nclass = No", fillcolor="#39e581"] ;
43 -> 45 ;
46 [label="gini = 0.0\nsamples = 10\nvalue = [0, 0, 10]\nclass = Yes", fillcolor="#8139e5"] ;
42 -> 46 ;
47 [label="Name <= 101.0\ngini = 0.375\nsamples = 4\nvalue = [0, 1, 3]\nclass = Yes", fillcolor="#ab7bee"] ;
41 -> 47 ;
48 [label="gini = 0.0\nsamples = 1\nvalue = [0, 1, 0]\nclass = No", fillcolor="#39e581"] ;
47 -> 48 ;
49 [label="gini = 0.0\nsamples = 3\nvalue = [0, 0, 3]\nclass = Yes", fillcolor="#8139e5"] ;
47 -> 49 ;
50 [label="Family <= 26.0\ngini = 0.444\nsamples = 3\nvalue = [0, 2, 1]\nclass = No", fillcolor="#9cf2c0"] ;
36 -> 50 ;
51 [label="gini = 0.0\nsamples = 1\nvalue = [0, 0, 1]\nclass = Yes", fillcolor="#8139e5"] ;
50 -> 51 ;
52 [label="gini = 0.0\nsamples = 2\nvalue = [0, 2, 0]\nclass = No", fillcolor="#39e581"] ;
50 -> 52 ;
53 [label="gini = 0.0\nsamples = 8\nvalue = [0, 0, 8]\nclass = Yes", fillcolor="#8139e5"] ;
35 -> 53 ;
54 [label="Family <= 13.5\ngini = 0.499\nsamples = 80\nvalue = [0, 42, 38]\nclass = No", fillcolor="#ecfdf3"] ;
34 -> 54 ;
55 [label="Name <= 3.0\ngini = 0.298\nsamples = 11\nvalue = [0, 9, 2]\nclass = No", fillcolor="#65eb9d"] ;
54 -> 55 ;
56 [label="gini = 0.0\nsamples = 1\nvalue = [0, 0, 1]\nclass = Yes", fillcolor="#8139e5"] ;
55 -> 56 ;
57 [label="Family <= 7.0\ngini = 0.18\nsamples = 10\nvalue = [0, 9, 1]\nclass = No", fillcolor="#4fe88f"] ;
55 -> 57 ;
58 [label="Which <= 79.0\ngini = 0.375\nsamples = 4\nvalue = [0, 3, 1]\nclass = No", fillcolor="#7beeab"] ;
57 -> 58 ;
59 [label="Family <= 4.5\ngini = 0.5\nsamples = 2\nvalue = [0, 1, 1]\nclass = No", fillcolor="#ffffff"] ;
58 -> 59 ;
60 [label="gini = 0.0\nsamples = 1\nvalue = [0, 1, 0]\nclass = No", fillcolor="#39e581"] ;
59 -> 60 ;
61 [label="gini = 0.0\nsamples = 1\nvalue = [0, 0, 1]\nclass = Yes", fillcolor="#8139e5"] ;
59 -> 61 ;
62 [label="gini = 0.0\nsamples = 2\nvalue = [0, 2, 0]\nclass = No", fillcolor="#39e581"] ;
58 -> 62 ;
63 [label="gini = 0.0\nsamples = 6\nvalue = [0, 6, 0]\nclass = No", fillcolor="#39e581"] ;
57 -> 63 ;
64 [label="Name <= 42.5\ngini = 0.499\nsamples = 69\nvalue = [0, 33, 36]\nclass = Yes", fillcolor="#f5effd"] ;
54 -> 64 ;
65 [label="gini = 0.0\nsamples = 9\nvalue = [0, 0, 9]\nclass = Yes", fillcolor="#8139e5"] ;
64 -> 65 ;
66 [label="Family <= 28.0\ngini = 0.495\nsamples = 60\nvalue = [0, 33, 27]\nclass = No", fillcolor="#dbfae8"] ;
64 -> 66 ;
67 [label="gini = 0.0\nsamples = 5\nvalue = [0, 5, 0]\nclass = No", fillcolor="#39e581"] ;
66 -> 67 ;
68 [label="Which <= 93.5\ngini = 0.5\nsamples = 55\nvalue = [0, 28, 27]\nclass = No", fillcolor="#f8fefa"] ;
66 -> 68 ;
69 [label="Name <= 87.5\ngini = 0.48\nsamples = 40\nvalue = [0, 24, 16]\nclass = No", fillcolor="#bdf6d5"] ;
68 -> 69 ;
70 [label="Family <= 83.0\ngini = 0.219\nsamples = 8\nvalue = [0, 7, 1]\nclass = No", fillcolor="#55e993"] ;
69 -> 70 ;
71 [label="gini = 0.0\nsamples = 7\nvalue = [0, 7, 0]\nclass = No", fillcolor="#39e581"] ;
70 -> 71 ;
72 [label="gini = 0.0\nsamples = 1\nvalue = [0, 0, 1]\nclass = Yes", fillcolor="#8139e5"] ;
70 -> 72 ;
73 [label="Family <= 76.5\ngini = 0.498\nsamples = 32\nvalue = [0, 17, 15]\nclass = No", fillcolor="#e8fcf0"] ;
69 -> 73 ;
74 [label="Family <= 53.5\ngini = 0.483\nsamples = 22\nvalue = [0, 9, 13]\nclass = Yes", fillcolor="#d8c2f7"] ;
73 -> 74 ;
75 [label="Name <= 107.0\ngini = 0.444\nsamples = 9\nvalue = [0, 6, 3]\nclass = No", fillcolor="#9cf2c0"] ;
74 -> 75 ;
76 [label="Which <= 77.0\ngini = 0.48\nsamples = 5\nvalue = [0, 2, 3]\nclass = Yes", fillcolor="#d5bdf6"] ;
75 -> 76 ;
77 [label="Name <= 90.5\ngini = 0.444\nsamples = 3\nvalue = [0, 2, 1]\nclass = No", fillcolor="#9cf2c0"] ;
76 -> 77 ;
78 [label="gini = 0.0\nsamples = 1\nvalue = [0, 0, 1]\nclass = Yes", fillcolor="#8139e5"] ;
77 -> 78 ;
79 [label="gini = 0.0\nsamples = 2\nvalue = [0, 2, 0]\nclass = No", fillcolor="#39e581"] ;
77 -> 79 ;
80 [label="gini = 0.0\nsamples = 2\nvalue = [0, 0, 2]\nclass = Yes", fillcolor="#8139e5"] ;
76 -> 80 ;
81 [label="gini = 0.0\nsamples = 4\nvalue = [0, 4, 0]\nclass = No", fillcolor="#39e581"] ;
75 -> 81 ;
82 [label="Which <= 89.5\ngini = 0.355\nsamples = 13\nvalue = [0, 3, 10]\nclass = Yes", fillcolor="#a774ed"] ;
74 -> 82 ;
83 [label="Family <= 70.0\ngini = 0.165\nsamples = 11\nvalue = [0, 1, 10]\nclass = Yes", fillcolor="#8e4de8"] ;
82 -> 83 ;
84 [label="gini = 0.0\nsamples = 8\nvalue = [0, 0, 8]\nclass = Yes", fillcolor="#8139e5"] ;
83 -> 84 ;
85 [label="Name <= 137.5\ngini = 0.444\nsamples = 3\nvalue = [0, 1, 2]\nclass = Yes", fillcolor="#c09cf2"] ;
83 -> 85 ;
86 [label="gini = 0.0\nsamples = 1\nvalue = [0, 1, 0]\nclass = No", fillcolor="#39e581"] ;
85 -> 86 ;
87 [label="gini = 0.0\nsamples = 2\nvalue = [0, 0, 2]\nclass = Yes", fillcolor="#8139e5"] ;
85 -> 87 ;
88 [label="gini = 0.0\nsamples = 2\nvalue = [0, 2, 0]\nclass = No", fillcolor="#39e581"] ;
82 -> 88 ;
89 [label="Which <= 63.5\ngini = 0.32\nsamples = 10\nvalue = [0, 8, 2]\nclass = No", fillcolor="#6aeca0"] ;
73 -> 89 ;
90 [label="gini = 0.0\nsamples = 1\nvalue = [0, 0, 1]\nclass = Yes", fillcolor="#8139e5"] ;
89 -> 90 ;
91 [label="Name <= 157.5\ngini = 0.198\nsamples = 9\nvalue = [0, 8, 1]\nclass = No", fillcolor="#52e891"] ;
89 -> 91 ;
92 [label="gini = 0.0\nsamples = 5\nvalue = [0, 5, 0]\nclass = No", fillcolor="#39e581"] ;
91 -> 92 ;
93 [label="Name <= 158.5\ngini = 0.375\nsamples = 4\nvalue = [0, 3, 1]\nclass = No", fillcolor="#7beeab"] ;
91 -> 93 ;
94 [label="gini = 0.0\nsamples = 1\nvalue = [0, 0, 1]\nclass = Yes", fillcolor="#8139e5"] ;
93 -> 94 ;
95 [label="gini = 0.0\nsamples = 3\nvalue = [0, 3, 0]\nclass = No", fillcolor="#39e581"] ;
93 -> 95 ;
96 [label="Name <= 188.0\ngini = 0.391\nsamples = 15\nvalue = [0, 4, 11]\nclass = Yes", fillcolor="#af81ee"] ;
68 -> 96 ;
97 [label="Which <= 115.5\ngini = 0.26\nsamples = 13\nvalue = [0, 2, 11]\nclass = Yes", fillcolor="#985dea"] ;
96 -> 97 ;
98 [label="Family <= 29.5\ngini = 0.153\nsamples = 12\nvalue = [0, 1, 11]\nclass = Yes", fillcolor="#8c4be7"] ;
97 -> 98 ;
99 [label="Name <= 126.0\ngini = 0.444\nsamples = 3\nvalue = [0, 1, 2]\nclass = Yes", fillcolor="#c09cf2"] ;
98 -> 99 ;
100 [label="gini = 0.0\nsamples = 1\nvalue = [0, 0, 1]\nclass = Yes", fillcolor="#8139e5"] ;
99 -> 100 ;
101 [label="Which <= 98.5\ngini = 0.5\nsamples = 2\nvalue = [0, 1, 1]\nclass = No", fillcolor="#ffffff"] ;
99 -> 101 ;
102 [label="gini = 0.0\nsamples = 1\nvalue = [0, 1, 0]\nclass = No", fillcolor="#39e581"] ;
101 -> 102 ;
103 [label="gini = 0.0\nsamples = 1\nvalue = [0, 0, 1]\nclass = Yes", fillcolor="#8139e5"] ;
101 -> 103 ;
104 [label="gini = 0.0\nsamples = 9\nvalue = [0, 0, 9]\nclass = Yes", fillcolor="#8139e5"] ;
98 -> 104 ;
105 [label="gini = 0.0\nsamples = 1\nvalue = [0, 1, 0]\nclass = No", fillcolor="#39e581"] ;
97 -> 105 ;
106 [label="gini = 0.0\nsamples = 2\nvalue = [0, 2, 0]\nclass = No", fillcolor="#39e581"] ;
96 -> 106 ;
}